=== Run information ===

Scheme:weka.classifiers.trees.REPTree -M 2 -V 0.001 -N 3 -S 1 -L -1
Relation:     manet-weka.filters.unsupervised.attribute.Remove-R1-3,9-20,25-35
Instances:    13986
Attributes:   10
              fromHop
              toHop
              type
              distance
              passthrough
              srcSpoofed
              destSpoofed
              hopsToSpoofed
              duringLinkLost
              altPathWithoutAttacker
Test mode:10-fold cross-validation

=== Classifier model (full training set) ===


REPTree
============

passthrough = true
|   srcSpoofed = true : true (78/0) [42/0]
|   srcSpoofed = false
|   |   destSpoofed = true : true (51/0) [27/0]
|   |   destSpoofed = false
|   |   |   hopsToSpoofed = 0 : false (79/0) [45/0]
|   |   |   hopsToSpoofed = 1 : false (0/0) [0/0]
|   |   |   hopsToSpoofed = 2
|   |   |   |   fromHop = 1 : false (0/0) [0/0]
|   |   |   |   fromHop = 2 : false (90/7) [55/1]
|   |   |   |   fromHop = 3
|   |   |   |   |   altPathWithoutAttacker = true : true (10/1) [7/0]
|   |   |   |   |   altPathWithoutAttacker = false : false (16/1) [10/0]
|   |   |   |   fromHop = 4 : false (18/7) [10/2]
|   |   |   |   fromHop = 5 : false (6/2) [3/1]
|   |   |   |   fromHop = 6 : true (5/2) [1/1]
|   |   |   |   fromHop = 7 : true (5/3) [1/0]
|   |   |   |   fromHop = 8 : true (2/1) [2/0]
|   |   |   |   fromHop = 9 : true (1/0) [0/0]
|   |   |   |   fromHop = 10 : false (0/0) [0/0]
|   |   |   hopsToSpoofed = 3
|   |   |   |   altPathWithoutAttacker = true
|   |   |   |   |   distance = 1 : false (0/0) [0/0]
|   |   |   |   |   distance = 2 : false (0/0) [0/0]
|   |   |   |   |   distance = 3 : false (61/26) [24/11]
|   |   |   |   |   distance = 4 : false (11/3) [1/0]
|   |   |   |   |   distance = 5 : true (11/4) [3/1]
|   |   |   |   |   distance = 6 : false (0/0) [0/0]
|   |   |   |   |   distance = 7 : false (0/0) [0/0]
|   |   |   |   |   distance = 8 : false (0/0) [0/0]
|   |   |   |   |   distance = 9 : true (2/0) [1/0]
|   |   |   |   |   distance = 10 : true (1/0) [0/0]
|   |   |   |   altPathWithoutAttacker = false : false (121/9) [48/4]
|   |   |   hopsToSpoofed = 4 : false (149/0) [61/0]
|   |   |   hopsToSpoofed = 5 : false (64/0) [21/0]
|   |   |   hopsToSpoofed = 6 : false (21/0) [13/0]
|   |   |   hopsToSpoofed = 7 : false (9/0) [7/0]
|   |   |   hopsToSpoofed = 8 : false (6/0) [2/0]
|   |   |   hopsToSpoofed = 9 : false (3/0) [1/0]
|   |   |   hopsToSpoofed = 10 : false (0/0) [0/0]
passthrough = false
|   destSpoofed = true
|   |   distance = 1 : false (0/0) [0/0]
|   |   distance = 2 : false (514/0) [257/0]
|   |   distance = 3
|   |   |   fromHop = 1 : false (0/0) [0/0]
|   |   |   fromHop = 2 : true (52/0) [32/0]
|   |   |   fromHop = 3 : false (95/0) [43/0]
|   |   |   fromHop = 4 : false (62/0) [24/0]
|   |   |   fromHop = 5 : false (48/0) [18/0]
|   |   |   fromHop = 6 : false (15/0) [6/0]
|   |   |   fromHop = 7 : false (6/0) [0/0]
|   |   |   fromHop = 8 : false (1/0) [3/0]
|   |   |   fromHop = 9 : false (2/0) [0/0]
|   |   |   fromHop = 10 : false (1/0) [0/0]
|   |   distance = 4
|   |   |   fromHop = 1 : false (0/0) [0/0]
|   |   |   fromHop = 2 : true (7/0) [3/0]
|   |   |   fromHop = 3 : true (9/0) [1/0]
|   |   |   fromHop = 4 : false (9/0) [1/0]
|   |   |   fromHop = 5 : false (9/0) [4/0]
|   |   |   fromHop = 6 : false (6/0) [0/0]
|   |   |   fromHop = 7 : false (0/0) [0/0]
|   |   |   fromHop = 8 : false (0/0) [0/0]
|   |   |   fromHop = 9 : false (0/0) [0/0]
|   |   |   fromHop = 10 : false (0/0) [0/0]
|   |   distance = 5
|   |   |   fromHop = 1 : false (0/0) [0/0]
|   |   |   fromHop = 2 : true (2/0) [1/0]
|   |   |   fromHop = 3 : true (3/0) [4/0]
|   |   |   fromHop = 4 : true (5/0) [0/0]
|   |   |   fromHop = 5 : false (7/0) [5/0]
|   |   |   fromHop = 6 : false (3/0) [1/0]
|   |   |   fromHop = 7 : false (0/0) [0/0]
|   |   |   fromHop = 8 : false (0/0) [0/0]
|   |   |   fromHop = 9 : false (0/0) [0/0]
|   |   |   fromHop = 10 : false (0/0) [0/0]
|   |   distance = 6 : false (6/1) [2/1]
|   |   distance = 7 : false (0/0) [0/0]
|   |   distance = 8 : false (0/0) [0/0]
|   |   distance = 9 : true (0/0) [2/1]
|   |   distance = 10 : false (0/0) [0/0]
|   destSpoofed = false : false (7642/0) [3870/0]

Size of the tree : 84

Time taken to build model: 0.04 seconds

=== Stratified cross-validation ===
=== Summary ===

Correctly Classified Instances       13884               99.2707 %
Incorrectly Classified Instances       102                0.7293 %
Kappa statistic                          0.8678
Mean absolute error                      0.0094
Root mean squared error                  0.0711
Relative absolute error                 15.6932 %
Root relative squared error             41.0631 %
Total Number of Instances            13986     

=== Detailed Accuracy By Class ===

               TP Rate   FP Rate   Precision   Recall  F-Measure   ROC Area  Class
                 0.799     0.001      0.958     0.799     0.872      0.996    true
                 0.999     0.201      0.994     0.999     0.996      0.996    false
Weighted Avg.    0.993     0.195      0.993     0.993     0.992      0.996

=== Confusion Matrix ===

     a     b   <-- classified as
   346    87 |     a = true
    15 13538 |     b = false

