=== Run information ===

Scheme:weka.classifiers.trees.J48 -C 0.25 -M 2
Relation:     manet-weka.filters.unsupervised.attribute.Remove-R1-3,9-20,25-35
Instances:    1384
Attributes:   10
              fromHop
              toHop
              type
              distance
              passthrough
              srcSpoofed
              destSpoofed
              hopsToSpoofed
              duringLinkLost
              altPathWithoutAttacker
Test mode:10-fold cross-validation

=== Classifier model (full training set) ===

J48 pruned tree
------------------

passthrough = true: true (99.0)
passthrough = false: false (1285.0)

Number of Leaves  : 	2

Size of the tree : 	3


Time taken to build model: 0 seconds

=== Stratified cross-validation ===
=== Summary ===

Correctly Classified Instances        1384              100      %
Incorrectly Classified Instances         0                0      %
Kappa statistic                          1     
Mean absolute error                      0     
Root mean squared error                  0     
Relative absolute error                  0      %
Root relative squared error              0      %
Total Number of Instances             1384     

=== Detailed Accuracy By Class ===

               TP Rate   FP Rate   Precision   Recall  F-Measure   ROC Area  Class
                 1         0          1         1         1          1        true
                 1         0          1         1         1          1        false
Weighted Avg.    1         0          1         1         1          1    

=== Confusion Matrix ===

    a    b   <-- classified as
   99    0 |    a = true
    0 1285 |    b = false

