=== Run information ===

Scheme:weka.classifiers.trees.J48 -C 0.25 -M 2
Relation:     manet-weka.filters.unsupervised.attribute.Remove-R1-3,9-20,25-35
Instances:    13986
Attributes:   10
              fromHop
              toHop
              type
              distance
              passthrough
              srcSpoofed
              destSpoofed
              hopsToSpoofed
              duringLinkLost
              altPathWithoutAttacker
Test mode:10-fold cross-validation

=== Classifier model (full training set) ===

J48 pruned tree
------------------

passthrough = true
|   srcSpoofed = true: true (120.0)
|   srcSpoofed = false
|   |   destSpoofed = true: true (78.0)
|   |   destSpoofed = false: false (1007.0/113.0)
passthrough = false
|   destSpoofed = true
|   |   altPathWithoutAttacker = true: false (771.0)
|   |   altPathWithoutAttacker = false
|   |   |   fromHop = 1: false (0.0)
|   |   |   fromHop = 2: true (98.0)
|   |   |   fromHop = 3
|   |   |   |   distance = 1: false (0.0)
|   |   |   |   distance = 2: false (0.0)
|   |   |   |   distance = 3: false (138.0)
|   |   |   |   distance = 4: true (10.0)
|   |   |   |   distance = 5: true (7.0)
|   |   |   |   distance = 6: true (1.0)
|   |   |   |   distance = 7: false (0.0)
|   |   |   |   distance = 8: false (0.0)
|   |   |   |   distance = 9: false (0.0)
|   |   |   |   distance = 10: false (0.0)
|   |   |   fromHop = 4
|   |   |   |   distance = 1: false (0.0)
|   |   |   |   distance = 2: false (0.0)
|   |   |   |   distance = 3: false (86.0)
|   |   |   |   distance = 4: false (10.0)
|   |   |   |   distance = 5: true (5.0)
|   |   |   |   distance = 6: false (0.0)
|   |   |   |   distance = 7: false (0.0)
|   |   |   |   distance = 8: false (0.0)
|   |   |   |   distance = 9: false (0.0)
|   |   |   |   distance = 10: false (0.0)
|   |   |   fromHop = 5: false (92.0/1.0)
|   |   |   fromHop = 6: false (37.0)
|   |   |   fromHop = 7: false (6.0)
|   |   |   fromHop = 8: false (4.0)
|   |   |   fromHop = 9: false (2.0)
|   |   |   fromHop = 10: false (2.0)
|   destSpoofed = false: false (11512.0)

Number of Leaves  : 	33

Size of the tree : 	41


Time taken to build model: 0.02 seconds

=== Stratified cross-validation ===
=== Summary ===

Correctly Classified Instances       13871               99.1777 %
Incorrectly Classified Instances       115                0.8223 %
Kappa statistic                          0.8427
Mean absolute error                      0.0146
Root mean squared error                  0.0855
Relative absolute error                 24.2851 %
Root relative squared error             49.3847 %
Total Number of Instances            13986     

=== Detailed Accuracy By Class ===

               TP Rate   FP Rate   Precision   Recall  F-Measure   ROC Area  Class
                 0.734     0          1         0.734     0.847      0.989    true
                 1         0.266      0.992     1         0.996      0.989    false
Weighted Avg.    0.992     0.257      0.992     0.992     0.991      0.989

=== Confusion Matrix ===

     a     b   <-- classified as
   318   115 |     a = true
     0 13553 |     b = false

