=== Run information ===

Scheme:weka.classifiers.trees.REPTree -M 2 -V 0.001 -N 3 -S 1 -L -1
Relation:     manet-weka.filters.unsupervised.attribute.Remove-R1-3,9-20,25-26
Instances:    13986
Attributes:   19
              fromHop
              toHop
              type
              distance
              passthrough
              srcSpoofed
              destSpoofed
              hopsToSpoofed
              duringLinkLost
              hopsFromSpoofedToDest
              spoofedBetweenAttacker
              isDstBetweenSpoofedAndAttacker
              spoofedBetweenAttackergw
              isDstBetweenSpoofedAndAttackergw
              isAttackerBetweenSpoofedAndDst
              isAttackerBetweenSpoofedAndDstgw
              isSrcBetweenSpoofedAndDst
              isSrcBetweenSpoofedAndDstgw
              altPathWithoutAttacker
Test mode:10-fold cross-validation

=== Classifier model (full training set) ===


REPTree
============

passthrough = true
|   isDstBetweenSpoofedAndAttacker = true
|   |   hopsToSpoofed = 0 : true (0/0) [0/0]
|   |   hopsToSpoofed = 1 : true (0/0) [0/0]
|   |   hopsToSpoofed = 2 : true (78/0) [36/0]
|   |   hopsToSpoofed = 3 : true (23/0) [12/0]
|   |   hopsToSpoofed = 4
|   |   |   fromHop = 1 : false (0/0) [0/0]
|   |   |   fromHop = 2 : false (0/0) [0/0]
|   |   |   fromHop = 3 : false (0/0) [0/0]
|   |   |   fromHop = 4 : true (5/0) [6/0]
|   |   |   fromHop = 5 : false (2/0) [1/0]
|   |   |   fromHop = 6 : false (3/0) [0/0]
|   |   |   fromHop = 7 : false (3/0) [0/0]
|   |   |   fromHop = 8 : false (2/0) [1/0]
|   |   |   fromHop = 9 : false (1/0) [0/0]
|   |   |   fromHop = 10 : false (0/0) [0/0]
|   |   hopsToSpoofed = 5
|   |   |   fromHop = 1 : false (0/0) [0/0]
|   |   |   fromHop = 2 : false (0/0) [0/0]
|   |   |   fromHop = 3 : false (0/0) [0/0]
|   |   |   fromHop = 4 : false (0/0) [0/0]
|   |   |   fromHop = 5 : true (3/0) [2/0]
|   |   |   fromHop = 6 : false (1/0) [1/0]
|   |   |   fromHop = 7 : false (1/0) [0/0]
|   |   |   fromHop = 8 : false (3/0) [0/0]
|   |   |   fromHop = 9 : false (1/0) [0/0]
|   |   |   fromHop = 10 : false (0/0) [0/0]
|   |   hopsToSpoofed = 6
|   |   |   fromHop = 1 : false (0/0) [0/0]
|   |   |   fromHop = 2 : false (0/0) [0/0]
|   |   |   fromHop = 3 : false (0/0) [0/0]
|   |   |   fromHop = 4 : false (0/0) [0/0]
|   |   |   fromHop = 5 : false (0/0) [0/0]
|   |   |   fromHop = 6 : true (1/0) [2/0]
|   |   |   fromHop = 7 : false (2/0) [1/0]
|   |   |   fromHop = 8 : false (2/0) [1/0]
|   |   |   fromHop = 9 : false (1/0) [0/0]
|   |   |   fromHop = 10 : false (0/0) [0/0]
|   |   hopsToSpoofed = 7 : false (3/2) [4/1]
|   |   hopsToSpoofed = 8 : true (2/1) [2/0]
|   |   hopsToSpoofed = 9 : true (1/0) [0/0]
|   |   hopsToSpoofed = 10 : true (0/0) [0/0]
|   isDstBetweenSpoofedAndAttacker = false
|   |   destSpoofed = true : true (51/0) [27/0]
|   |   destSpoofed = false
|   |   |   isDstBetweenSpoofedAndAttackergw = true
|   |   |   |   hopsToSpoofed = 0 : false (79/0) [45/0]
|   |   |   |   hopsToSpoofed = 1 : false (0/0) [0/0]
|   |   |   |   hopsToSpoofed = 2
|   |   |   |   |   isAttackerBetweenSpoofedAndDstgw = true : true (11/0) [1/0]
|   |   |   |   |   isAttackerBetweenSpoofedAndDstgw = false : false (19/0) [8/0]
|   |   |   |   hopsToSpoofed = 3
|   |   |   |   |   isAttackerBetweenSpoofedAndDstgw = true : true (37/3) [12/0]
|   |   |   |   |   isAttackerBetweenSpoofedAndDstgw = false : false (27/0) [9/0]
|   |   |   |   hopsToSpoofed = 4 : false (15/0) [6/0]
|   |   |   |   hopsToSpoofed = 5 : false (5/0) [1/0]
|   |   |   |   hopsToSpoofed = 6 : false (1/0) [0/0]
|   |   |   |   hopsToSpoofed = 7 : false (1/0) [0/0]
|   |   |   |   hopsToSpoofed = 8 : false (1/0) [0/0]
|   |   |   |   hopsToSpoofed = 9 : false (1/0) [0/0]
|   |   |   |   hopsToSpoofed = 10 : false (0/0) [0/0]
|   |   |   isDstBetweenSpoofedAndAttackergw = false : false (434/0) [207/0]
passthrough = false
|   destSpoofed = true
|   |   isDstBetweenSpoofedAndAttackergw = true : false (690/0) [333/0]
|   |   isDstBetweenSpoofedAndAttackergw = false
|   |   |   fromHop = 1 : false (0/0) [0/0]
|   |   |   fromHop = 2 : true (61/0) [37/0]
|   |   |   fromHop = 3
|   |   |   |   distance = 1 : false (0/0) [0/0]
|   |   |   |   distance = 2 : false (0/0) [0/0]
|   |   |   |   distance = 3 : false (45/0) [14/0]
|   |   |   |   distance = 4 : true (9/0) [1/0]
|   |   |   |   distance = 5 : true (3/0) [4/0]
|   |   |   |   distance = 6 : true (1/0) [0/0]
|   |   |   |   distance = 7 : false (0/0) [0/0]
|   |   |   |   distance = 8 : false (0/0) [0/0]
|   |   |   |   distance = 9 : false (0/0) [0/0]
|   |   |   |   distance = 10 : false (0/0) [0/0]
|   |   |   fromHop = 4 : false (31/5) [7/0]
|   |   |   fromHop = 5 : false (11/0) [8/1]
|   |   |   fromHop = 6 : false (8/0) [3/0]
|   |   |   fromHop = 7 : false (2/0) [0/0]
|   |   |   fromHop = 8 : false (1/0) [0/0]
|   |   |   fromHop = 9 : false (0/0) [0/0]
|   |   |   fromHop = 10 : false (0/0) [0/0]
|   destSpoofed = false : false (7642/0) [3870/0]

Size of the tree : 89

Time taken to build model: 0.04 seconds

=== Stratified cross-validation ===
=== Summary ===

Correctly Classified Instances       13959               99.8069 %
Incorrectly Classified Instances        27                0.1931 %
Kappa statistic                          0.9678
Mean absolute error                      0.0024
Root mean squared error                  0.0365
Relative absolute error                  3.9607 %
Root relative squared error             21.0795 %
Total Number of Instances            13986     

=== Detailed Accuracy By Class ===

               TP Rate   FP Rate   Precision   Recall  F-Measure   ROC Area  Class
                 0.968     0.001      0.97      0.968     0.969      0.999    true
                 0.999     0.032      0.999     0.999     0.999      0.999    false
Weighted Avg.    0.998     0.031      0.998     0.998     0.998      0.999

=== Confusion Matrix ===

     a     b   <-- classified as
   419    14 |     a = true
    13 13540 |     b = false

